encog,BasicNetwork,java,3.4.0,1,1505735443546
[BASIC]
[BASIC:PARAMS]
[BASIC:NETWORK]
beginTraining=0
connectionLimit=0
contextTargetOffset=0,53,0
contextTargetSize=0,32,0
endTraining=2
hasContext=t
inputCount=16
layerCounts=3,33,49
layerFeedCounts=3,32,16
layerContextCount=0,0,32
layerIndex=0,3,36
output=0,0,0,0,0,0,0,0,0,0,0,0,0,0,0,0,0,0,0,0,0,0,0,0,0,0,0,0,0,0,0,0,0,0,0,1,0,0,0,0,0,0,0,0,0,0,0,0,0,0,0,0,1,0,0,0,0,0,0,0,0,0,0,0,0,0,0,0,0,0,0,0,0,0,0,0,0,0,0,0,0,0,0,0,0
outputCount=3
weightIndex=0,99,1667
weights=0.9090586518,0.2949103183,0.5811939852,-0.2778226133,-0.3190076391,0.1162657224,-0.9411276413,0.907503628,-0.4810023107,0.204690357,-0.2015799742,0.6628386449,0.2001309022,0.8134968293,-0.3586435624,0.2060894334,0.6623550483,-0.9523737077,0.9006753638,-0.2507700305,0.5118498536,0.6280329758,0.3773921434,0.3080874619,0.3465654464,0.0559762129,0.4032055834,0.0997295011,0.637097279,0.3550800724,-0.713036198,0.9192457791,-0.9232670732,0.0364994494,0.7187341801,-0.3671721551,0.8623551259,-0.9005544567,0.4083014052,0.4617631502,0.6705519585,-0.5148080139,-0.8665625565,-0.1379614457,0.8281787013,-0.1802077488,-0.559823159,-0.7869794108,-0.8479073269,-0.9763515655,0.3824302622,0.6661294454,-0.4371976719,-0.8225022815,0.6625865043,-0.3838488591,-0.512145317,-0.0726843002,0.1990092578,-0.0951299825,0.8763586502,-0.435609656,-0.3057453858,-0.9461254399,0.884127983,0.2652270271,0.6512105708,0.5504534473,0.7260464684,-0.9441844924,0.2510011284,-0.0934540746,0.2030405668,0.6739220809,0.9687976633,0.1442680823,-0.2886940864,0.1200338057,-0.9202780716,0.6524217426,-0.9359370171,-0.5803932838,0.3625787456,0.9931199917,-0.6286878227,0.057484668,0.4104584554,-0.366739882,0.2285555724,-0.5803855016,0.5420061894,-0.2012937972,-0.5602417866,-0.7818250331,-0.7885864324,0.3735390548,0.8594498146,0.2400042154,-0.234655477,-0.0628599694,-0.8260937623,-0.1275784611,0.8357869242,-0.9853496171,0.3817143132,0.281112502,-0.9668541101,0.9460213475,0.2796031035,0.6140118116,-0.1748684426,0.6657855622,-0.3093426754,-0.6839375177,-0.6943293957,-0.9122139622,0.8705850481,0.154068042,-0.5700724733,-0.6476981119,0.55296878,0.6774935626,-0.1123887656,-0.3378212717,0.2637312741,-0.3881987534,0.0521383884,-0.9851700078,0.4206415551,0.7542499569,-0.4991936721,-0.8672986554,-0.3144784289,-0.7087179942,0.9677544587,0.8637373427,0.2968808731,0.8282187112,0.3792526276,-0.208307659,0.8932595832,0.6212543038,-0.6229312336,0.5069951311,0.0980128213,0.6755610383,-0.4764522824,-0.6742699378,-0.4755634639,0.022020462,0.5783731271,0.2869544041,0.6050243619,-0.4889156933,-0.4152417203,-0.8654585321,0.6064091702,0.6361120209,0.6037416165,-0.9442145953,0.6790152842,-0.8280421932,-0.3564819171,-0.3257863474,-0.1926583821,0.5830652759,-0.1087650787,-0.0399984318,0.7184231316,0.4586960777,0.3514257072,-0.148604541,0.7918631202,-0.6535189063,-0.7187172825,0.5868534029,0.7911097355,0.9651323718,-0.4633958779,-0.2899489953,-0.8393999748,0.1952276803,-0.1887244914,0.5734535651,0.3271555956,0.040800351,0.7762275755,-0.5424117702,-0.3685757115,0.4352770417,0.0583638635,0.1774721056,-0.2347625049,0.0778702173,0.8817722373,-0.8538604701,0.3788591901,0.4211667612,0.1896491466,-0.652029378,0.9631181501,0.0695021267,-0.6111326269,-0.210278962,-0.8750636375,0.9324796168,-0.3497011232,-0.1730106032,0.1604959233,0.5617138377,-0.3404248144,-0.4672356404,-0.7952506197,-0.1985860761,0.8662185607,0.2578821702,0.5772416018,-0.2030896266,0.6627095137,-0.8655373063,-0.3454361455,0.8679779951,-0.5667271699,-0.8285788605,-0.0418737489,-0.1410103748,-0.7251879762,-0.2404683927,0.9296498822,0.26241177,0.3460605464,0.0930921087,0.2735433066,-0.4793226889,0.5771178069,0.2498867619,0.8862089597,-0.5547316323,0.4912059285,-0.5946738191,-0.0612758301,0.5650153278,0.2490558692,0.0535737325,0.7250470337,0.4198172519,-0.5044575933,0.5965598144,-0.2170313731,-0.5403634701,-0.6315944092,0.7154322776,-0.3236396134,-0.2716743098,0.7905374454,-0.3619781569,0.4931339133,0.5974683957,0.6147309878,0.3427479009,-0.8164693429,0.2580714084,-0.7077992426,0.8443047484,-0.6562855079,-0.3637679731,-0.2021547319,0.4409313921,0.9045354069,-0.0801028969,0.4359780368,-0.33564892,0.3666383575,0.2468327952,-0.4746698811,0.4336571911,0.8822996576,-0.6998798492,-0.2503309039,0.3876383995,0.627788975,0.1004170436,-0.220252144,-0.8156913005,-0.4724269426,-0.8955705365,-0.4260973079,0.6353874551,-0.0505228734,-0.7784557906,-0.7999813995,0.3214084467,0.1814272349,-0.9111329693,0.6523837067,0.5488748442,-0.9435350218,0.7112658163,0.0874294423,0.4317721683,0.5230050043,0.4719629528,-0.6940680743,-0.4644331929,0.0020210834,-0.5334720776,0.0853049724,0.9218712874,-0.8665346687,0.1467761715,-0.7867246428,0.8627180372,-0.9728289527,0.6645419449,0.792485484,-0.3726310493,-0.7728060075,-0.3766294695,-0.0656571904,0.8270367121,0.2602895395,-0.5695310983,-0.8356343981,-0.5090938914,0.2471133373,-0.5681697776,0.5128121332,-0.138877783,0.5944309932,-0.224602896,-0.3091120772,-0.2394357138,0.0368800069,-0.979188696,0.9533429946,0.4487880583,-0.2222672345,-0.7297678218,-0.1119118272,0.5208214725,-0.1284453999,-0.8659351136,0.71545809,0.3418680854,0.5664606031,0.0747220542,0.9999059696,-0.9380034451,-0.0848815498,-0.5088673644,-0.8495683711,0.1289173097,0.6989970649,0.0632003578,0.6116329432,-0.2883364228,-0.0978253484,0.5685190603,-0.2184768354,-0.8796840201,-0.9706603857,0.8215544923,-0.8037926561,-0.4319223132,-0.4109401008,-0.8871439635,-0.2325898436,-0.3745010601,0.8343421337,-0.1947176357,0.7557279139,-0.1309055451,0.6020251268,-0.424360066,-0.984036942,-0.426851092,-0.443782072,0.8959370436,-0.5660479728,-0.7971275107,-0.3518045255,-0.0032805006,0.5673142641,-0.2470501419,-0.4450060482,-0.9911137317,-0.554301874,-0.7098783496,-0.120370206,-0.2475440539,-0.4571539231,-0.2843238982,-0.7514332535,-0.6707268989,-0.7610368813,0.9888163419,-0.9688305135,0.1092541793,0.8343224702,-0.3676320272,0.7486121136,0.8898194772,-0.7147985377,-0.1115147512,0.3001428744,0.7358540167,0.5607641287,-0.8415445786,0.7900356364,0.5380366579,0.1850818436,0.9438441154,0.4150426822,-0.8578488736,0.2709997297,-0.5815460129,-0.0346557035,-0.2215724273,-0.1645954826,0.6952216858,0.6297136119,0.5736517825,-0.7377704382,-0.5008322383,0.019157234,0.0333606276,-0.6513003377,-0.3607596997,-0.0342177379,-0.6095008467,-0.4645272589,0.5465333664,0.7393956715,0.4749333906,-0.5056679092,-0.1231940904,-0.1997433353,-0.4982693064,0.3545311242,0.1196744435,-0.5059166958,-0.0153910943,0.2495239751,-0.9740748818,-0.2915168388,-0.6307070974,0.9246211434,0.4834285908,0.1566299687,0.0582684113,-0.8776073974,0.9474626158,-0.1056610563,-0.2998731006,-0.2667706273,-0.4292191933,-0.3647160737,0.860613105,-0.6376668331,0.0719480413,0.9416403757,-0.5550829514,-0.8731806263,-0.6250672075,-0.2235013386,0.3029661201,0.0645583468,0.3204076914,-0.375295108,-0.1238247744,0.4258537931,0.7340896739,-0.374634637,-0.3368881073,0.4893499208,0.5659202889,-0.5011754238,0.9525763981,-0.1170734583,-0.2534521963,-0.6339002639,0.9202299086,0.009742157,0.3353111102,0.2350426757,0.4745431128,0.7926049247,-0.799544298,-0.9001688513,0.6958700068,-0.9259296703,0.331091509,0.0824796997,0.5005326036,0.4137855674,0.4783101363,0.7999212768,0.550293494,-0.5975383732,0.9898520252,-0.1424237676,-0.5817211198,0.0126112826,0.4387836472,-0.0913913367,-0.4116808511,-0.2843047222,-0.4915006511,-0.1283247907,0.2875085997,0.6559782742,0.751734091,-0.9243180991,-0.8069842158,0.9339411375,-0.5566814357,0.2910051612,-0.4698900094,0.1266055033,0.0135852753,-0.3729939589,-0.5923453066,-0.9830045117,-0.1882314943,-0.9832987438,0.9095993184,0.6030973249,-0.2092324235,0.6697871601,0.3319117411,0.0883686418,0.0321231622,-0.3549893518,-0.2058187182,-0.8778806517,0.0237392172,-0.1488652159,-0.6001775323,0.5728783118,0.5285512819,-0.0809274779,0.3917801172,0.9347224263,-0.5791589119,-0.1320395861,-0.1305216617,0.3320016948,0.6843100738,-0.7304509673,0.8603394865,0.6974170937,-0.351850651,-0.1013641217,0.6618772064,-0.5061681936,0.9084980984,0.2245873799,0.5938125744,0.6366510255,0.8757915241,0.0794556176,-0.8315204752,0.8485345201,-0.3700049222,-0.7440193806,-0.824866043,0.5568917948,0.8749520735,0.2078082211,0.3140731093,0.6304360386,-0.5786544698,-0.6774915122,0.7130550428,0.6727009031,0.3122775698,0.7697315012,-0.4235865035,-0.0025817292,0.8960909643,-0.0074022709,-0.4668308584,-0.6348096686,-0.4251381403,-0.4000678883,0.9257552341,-0.4366803906,0.3024144187,-0.7950388368,-0.3148857056,-0.5623928037,0.2649367647,-0.3724361185,-0.0469690185,-0.1570640824,0.6069451993,-0.8321175592,-0.5891800828,0.513345241,-0.6465091664,-0.4160838919,0.3736178349,-0.7665247275,0.6630336812,0.4742274818,0.8970357547,0.566011606,-0.0511374157,0.7260748621,-0.4597955373,0.7711879082,0.8547981079,0.3288019705,-0.002683617,0.1879552184,0.2814885364,0.5085287777,-0.8686216296,0.4237774,0.2447070121,0.1912621388,0.0683852654,0.9387931664,-0.9447294166,0.1518628202,0.6113389414,-0.60249366,0.993324144,0.6961287114,-0.1017232984,-0.7995209465,0.9739294122,0.5370807673,0.3733083386,0.060315697,0.7545878137,0.6580058716,0.2697040516,-0.8675886767,-0.2727471914,-0.6386551471,-0.1420740841,-0.8042705123,-0.9561705554,0.128329495,0.4459739521,-0.7573421419,-0.4699588565,-0.6716467035,-0.0963614067,0.4819381541,0.8975583758,-0.7961405372,-0.3278672179,-0.6031533178,-0.9070703544,-0.0020019863,0.9423802445,-0.944122372,0.9755264554,-0.4976916632,0.1538669514,0.0750425933,-0.010013336,0.0837049271,0.2621606465,-0.6373777973,-0.4361370209,-0.7937043894,-0.0478275658,0.2531540802,-0.7243106101,0.5022219196,-0.1209706578,0.6550621642,0.7366193307,-0.02519537,-0.660406958,0.0532143684,-0.4727046535,-0.011993225,0.9433718998,0.3899310628,-0.1864138709,-0.345587901,0.0803316977,0.2893130536,0.7735776688,-0.1493727459,0.6676625868,-0.4840693898,0.0123285996,-0.0320487033,-0.5489257985,0.1774591944,-0.6582655505,-0.5387918764,-0.668807674,0.791559413,-0.7527485141,0.3050543396,-0.7429391789,-0.4299343505,0.9033488949,0.856693425,-0.6524586159,0.358482891,-0.5474143472,0.6786749859,0.6702644801,0.828818907,0.8752514974,-0.4419248993,0.4325338474,-0.1426566321,-0.8571782341,0.73209161,-0.5296008167,-0.7713761259,0.358703524,0.8143051072,0.5791244336,-0.7725919845,-0.9307521333,-0.2454344914,0.6768376265,0.7475824108,-0.6455545397,0.1105014984,-0.5985144642,0.0338604003,0.5864157071,0.4639951212,0.3311202639,-0.0083000185,0.3737680201,-0.4247162258,-0.7031134045,0.7881219728,0.6687953715,-0.4505313583,0.1429950246,0.9340289029,0.6879793491,0.9360644341,-0.435060363,0.7271661891,0.7306707371,0.1026802797,-0.4738981054,-0.5003383186,0.1168950838,-0.9797247836,0.3138668799,-0.3415550106,0.6636916811,0.0673197703,0.2136413496,0.545438471,-0.3835232115,-0.6638309637,-0.2511056789,-0.9472065479,0.222002135,0.2797874778,0.663592405,-0.5521630577,-0.2305747614,-0.1245119328,-0.0924762937,-0.1417035604,-0.6359604529,0.8211024257,-0.4475794398,-0.5714281582,-0.7818525575,0.6282984746,-0.1716925939,-0.8048914033,0.5345149138,-0.9571063351,-0.936214072,-0.7565932765,-0.4437011893,-0.9673431661,-0.5341225396,0.6258726274,-0.4534434496,-0.2027327644,-0.0159801752,-0.6103789566,-0.2104379227,-0.1402065768,0.1064019567,0.2617261889,0.3149268233,-0.5764079349,-0.6045231662,-0.8396722714,-0.3065111022,-0.3350582226,-0.7456089169,-0.2324911933,0.5114787544,-0.5851185706,-0.6767586375,-0.0285730261,0.3894233169,-0.2139110996,-0.2375340953,-0.7438276121,0.943003949,-0.871186727,0.9104444589,0.4549167701,0.3093574542,-0.9391596913,-0.8681547462,0.2928648539,0.7095184602,0.2881728317,-0.9917674238,-0.1897021448,0.5501222789,0.8849371068,0.1269769967,-0.6613825693,-0.9816669345,-0.1020270682,0.1768140203,-0.6820005274,-0.3861728772,0.7198026469,-0.7049797947,-0.0020789872,-0.8928506196,0.675643358,0.3503221253,0.2140708682,0.0652667295,-0.1393589031,-0.1602177177,0.9103033702,0.5231340395,-0.9950081524,0.9641146881,-0.4938908083,0.868813755,-0.4888128117,0.6522525425,-0.3752078019,0.7400703973,-0.5777485302,0.7598116145,-0.6002092103,-0.2682519108,0.9033131147,-0.1390582956,0.7716353589,-0.2376416634,0.0211801733,-0.2832098343,-0.3080685942,-0.7795186695,0.517373326,-0.8522540541,0.0139523501,0.7222514356,0.8681733218,-0.2765474086,0.7536522501,-0.3160100422,0.565157593,-0.1347867991,-0.8938759725,-0.4031888105,0.4542253062,0.4036697871,-0.0101653556,0.8570850763,-0.7496218683,-0.0654031581,-0.6091719489,0.3876777553,-0.968347551,-0.5187092421,0.6822685013,0.9269609043,0.4423312812,0.3499580927,0.8158321684,-0.7783247347,-0.8063892677,-0.8392895318,0.7491225349,0.7470046794,-0.2578686278,0.9971847578,-0.7922586186,-0.6762137912,0.1868405321,0.0822798604,0.1471257112,-0.9189176612,0.6281982718,-0.9165595588,0.909904861,0.843881072,0.4262327573,0.4944582521,0.5138174985,0.3079306839,-0.4019366048,-0.7394552669,0.2426695152,-0.2875009657,0.5680602636,0.4293051056,0.2754255076,0.3340964048,0.9992887063,-0.2549412491,-0.6592519628,0.3217048914,0.2338864467,0.8082910706,-0.8784944868,0.5710532268,-0.6245306449,-0.1793892448,0.0380488321,0.1992138908,-0.3343623557,0.0854011707,-0.6057027842,-0.3497938337,0.553633185,-0.4534010343,-0.689822252,-0.3114268862,0.0027483504,0.4623905215,-0.0695090401,0.9367309031,0.6754263438,-0.1052448994,0.6959975648,0.9076397864,0.1489525373,-0.083901791,0.0834892127,-0.588842878,0.7902295698,-0.0307187326,0.2747614259,0.7823193904,0.8687516638,-0.5401030062,-0.9847220264,0.7444551585,0.8520566925,-0.1911532021,0.8655617829,0.2073758709,0.7127699828,-0.7352597471,-0.4795918616,-0.9407504772,0.1993636529,0.1187377649,0.8397212208,0.1918252206,0.6335435926,0.1663614868,-0.934661765,0.990662422,0.4598742178,0.5110084384,-0.9904850844,-0.389270621,0.8313945706,-0.0599533547,0.9078504481,-0.235811454,-0.5918676168,0.2055991119,0.7911222859,0.5070008178,-0.1624444314,-0.3397012804,-0.2081415932,-0.6506888102,-0.2243049451,0.2913948835,-0.2800323206,-0.8533800699,0.1983071231,-0.4100170026,-0.0930104946,-0.7819394502,0.051708855,0.474177599,-0.2269641717,-0.233223729,-0.9265485793,0.2892969382,-0.4384388703,-0.0549837107,0.3627903048,0.8045419111,-0.6791475413,-0.5701862398,0.9764637229,-0.2901547474,-0.6522975374,0.3623338781,0.7905566468,0.1521770162,0.1631361395,-0.974509774,0.7994390003,-0.1173475107,-0.2075956609,-0.7759374371,0.0120753846,0.7048063719,0.8922980475,0.2040316184,-0.8131900347,-0.6448716996,0.1731735534,-0.3740027385,-0.6249899538,0.9339107129,0.2368914485,0.9422469238,0.4401067124,-0.8831139161,-0.2582854796,-0.6775427297,-0.6871553391,0.1749251037,-0.7876216204,0.4952749673,-0.0926923649,0.4450703953,-0.3675897769,-0.8031974187,0.8595062129,-0.1445982262,0.4219907081,0.9215315047,0.8248909771,-0.2575960124,0.0217753938,-0.5530003639,0.2048473572,-0.7586401313,0.3001406511,0.7785193844,0.2160981608,-0.7667298158,-0.3346433331,-0.0484620737,0.439030993,0.686275924,-0.0009673258,-0.3167519045,0.3039651772,0.1060684719,0.6977543778,0.0329071667,0.0182502082,-0.9741820878,0.3696805006,0.1395494424,-0.0531690736,0.6448803053,0.955206833,0.018489911,-0.4442826695,-0.8941932955,0.9611413155,0.3722833653,-0.5108902802,-0.5485617742,-0.9762969616,-0.112730621,-0.0232401501,-0.7435324211,-0.7810268001,0.5177595959,-0.3198486842,0.8299047849,0.5710335637,-0.1611415832,-0.5643894195,-0.5421460269,-0.5574492388,0.4462660188,0.9913819113,0.4260459899,-0.6043946991,-0.3993001754,0.1863574001,-0.6769998577,-0.6083527543,0.3068968948,0.5361350152,-0.7590990754,-0.9965369121,-0.1739059494,-0.1516312397,0.2367605353,-0.6622518271,-0.0339619846,0.3893345786,0.5107267691,-0.795097789,0.9653471311,0.948129494,-0.2576307354,0.3511893058,0.1774453319,0.2113292228,-0.3426415393,-0.7452207573,-0.4653913657,0.0198991684,-0.0778019138,-0.2459547426,-0.4628919406,-0.1149075444,0.0534873298,0.0584528741,-0.9420771401,-0.7507776289,-0.5890945363,-0.9555171984,-0.5437582509,0.1244076589,0.5993910522,0.5655554533,-0.6331205095,-0.7574787904,0.9393215853,0.8499511807,-0.7367175772,0.6414573521,-0.2443438553,-0.2719855462,0.4524585534,0.4599460945,0.2383501086,0.2376191597,-0.0436678582,0.2177331087,-0.5493979593,0.9736157395,-0.9986392672,0.1800920681,-0.0079091411,-0.262026229,-0.5839887216,0.4696237987,0.0134088342,-0.493335404,-0.9144996813,-0.3522319126,-0.0750689666,0.0942443221,-0.2109366269,-0.7442100585,0.8288869612,0.8155622232,0.8469130578,-0.5260557311,0.412596611,0.9990070471,-0.2183690861,0.705009226,0.0785846048,-0.2013842742,0.173949549,0.7418534606,-0.4405722968,0.6754522726,-0.3767506297,0.690295611,-0.9869270037,0.4964004016,-0.0524866106,-0.7569117823,0.9275538842,0.3930421787,-0.6267038016,0.9233661658,-0.5893113311,0.4268760835,-0.0543878786,0.6208046524,0.3005533839,-0.0910899702,0.3571231028,0.6644031431,0.1982416808,-0.1714067923,-0.8284317025,0.0567636783,0.8871533019,0.3192756511,0.1612675635,0.2651790397,0.5787496795,0.3057780377,-0.2876415141,0.2716350582,0.2476541686,-0.5655799885,-0.8288831444,0.7997332178,0.6634249017,-0.8164003141,0.1746388673,0.9127001708,-0.996123062,0.4736762997,0.6922701822,0.2084028833,-0.8650009832,-0.9224739699,-0.1524307383,0.8725527995,-0.770442419,0.7698763676,-0.731099107,0.6229876096,0.9246253979,0.125728115,0.6656530388,-0.5595207606,0.3804115869,0.2912979979,-0.8822821417,0.4267881613,0.7906874582,0.038474212,0.5081806461,-0.6492417866,0.6863785661,0.6201488193,0.9461233614,0.6273144612,-0.7643256206,-0.9909143066,-0.3062646507,0.586795706,0.2203852641,-0.8689128771,-0.352269812,-0.2447783519,-0.6980296562,0.6873634348,0.4226733281,0.8392496939,-0.3312212151,0.4249596153,-0.4438199704,-0.4564190864,-0.1661970978,-0.2524119462,-0.0025258036,-0.1141716638,0.1160485763,-0.4006706657,0.1506242144,0.5086894408,0.2729897214,-0.0305149325,-0.3244806873,0.4253777016,0.2564849804,0.5192508658,0.1068052821,0.3468971786,0.9130769202,0.2054132422,0.1017305731,-0.6992584163,0.6794478419,0.8544262106,0.3772514072,-0.6471742878,0.1089399799,-0.4841030939,0.9631318618,0.922079042,-0.7111153194,-0.1988150161,0.0045361318,-0.5051650382,-0.8167276237,-0.4472498759,-0.4742972733,-0.7483927021,0.3122349607,-0.536090871,-0.0763586167,-0.3700930751,-0.123683167,0.8763088965,-0.9264795148,0.3771221959,-0.5645241013,-0.6496321149,0.9636410296,0.445617465,0.2691840717,-0.1851137429,-0.9561938374,0.3226170512,-0.418634086,0.9369344587,0.8853375776,0.6426916983,-0.2294596493,0.4242422733,-0.4111758079,-0.172619134,0.9647226848,0.8918129767,0.5450008664,0.9880375336,0.3168350342,0.2956861871,-0.0262775561,-0.0745920726,-0.7292043474,0.5852765855,0.9547369664,-0.4107565426,0.9457089618,0.5060760372,0.2088535137,0.830571776,-0.4987986919,0.0875920384,-0.3211974293,0.6649317913,0.1284567568,-0.8379071766,0.5050941047,-0.3219887353,-0.2627179581,0.7331278849,0.939337518,-0.028037482,0.3349203233,0.0185285831,-0.3007025064,-0.0219853885,-0.2637820112,-0.3678698306,-0.0078482161,-0.5086622868,-0.1785785144,-0.3512474115,-0.4717085519,-0.5283982599,0.7940472046,0.4460370838,0.0287449664,-0.7647235287,-0.0081096312,0.4400223837,0.3621733458,0.9102971161,-0.0484226501,-0.5745185373,-0.2589213147,-0.6206031082,-0.5997680039,-0.3209754489,-0.7279109434,-0.3194352904,0.5340433111,-0.00217131,0.1486060797,-0.3878074718,-0.0918862172,0.6830817112,-0.8126011643,-0.6764883568,0.1414329624,0.604989957,0.1108756787,0.8630946236,0.85135049,-0.4803212701,-0.6161895554,-0.7797151781,-0.1410853407,-0.2407612493,-0.8793426631,-0.9781607784,-0.2103598731,0.6053036082,0.9364681782,0.7221185039,-0.0795580192,0.2032342137,0.2849863405,0.7846659561,0.179373372,0.0916016266,-0.6693931883,0.2455286413,0.3276372036,-0.9592023973,-0.5353906837,0.6635840097,-0.1716809547,0.8215537001,0.5487453845,-0.2560585252,-0.7274006916,0.3102655741,0.0530486524,0.0755770616,-0.4031545792,0.7520464756,-0.2002263817,0.0723908902,0.9370620356,0.6635257783,-0.1390128184,-0.0580692049,-0.1438853993,0.8782199466,-0.2761104867,0.8194886344,0.3648668148,0.4422311282,0.3673360509,-0.3580042338,-0.630369551,0.6380430998,-0.1851439369,0.9978070811,-0.4899020261,0.4943045032,0.4367420179,-0.1850860645,-0.1889074883,-0.7491730381,-0.3047512608,0.1633942214,-0.6588729558,0.6237438368,0.3445752664,0.5719712507,0.2341480102,-0.0709160336,-0.8315538313,0.6888057387,-0.1848444107,0.2882777785,-0.4673717003,0.9971158746,-0.0662829837,0.6176132263,-0.3383560905,-0.2490313361,0.0398307909,0.2219008124,-0.9337731151,-0.4148226263,-0.637937976,-0.7085711908,-0.3189891468,0.4420519971,0.7595810773,0.8304334945,0.912585026,-0.713600889,-0.2205048045,-0.7342394166,-0.6226973759,-0.5186297033,-0.059529912,0.2356890211,0.0554204122,-0.7487442268,-0.4309781421,-0.9226534404,-0.5211354903,-0.617656656,-0.1495834884,-0.8072774805,0.7058900424,0.745952566,0.6613550666,0.0368687976,0.3875671521,0.8689727578,0.6198933098,0.5072076382,0.9603233008,0.8590483389,0.9460908132,-0.6549155629,-0.0481339981,-0.6343546487,0.507807624,0.1111474255,0.8928595516,0.5208640586,0.7340861146,0.6177933564,0.3382519438,0.0487450194,-0.1087836832,0.6756605753,-0.4107688617,0.8725576497,0.3199635557,-0.8039335356,0.4206986459,0.934422385,0.5534056319,-0.4372307055,-0.741245784,0.4142286616,0.0217323648,-0.1247714129,0.5774762588,-0.2921574381,-0.9104238279,-0.7612236599,0.9291762359,0.3106242482,-0.8810168211,0.4935568169,0.3919188496,-0.4574401965,-0.3669457427,-0.4735794628,0.7986396098,0.3360223686,-0.7548382928,0.5152199482,-0.6659162997,-0.6457017967,0.0971939163,0.3452157765,0.1639086039,-0.3311980212,-0.7792986225,-0.8645301489,-0.0324626599,-0.9525299056,-0.6079135616,-0.8887963302,0.5492780166,0.9223286251,0.3550775318,-0.5102190208,0.3531489726,0.2345774956,0.7648633774,-0.0718645423,-0.2413178045,0.0926934073,0.453273429,-0.3861944534,0.6141395363,0.7823917233,0.0245671926,-0.9372524662,0.007431719,-0.8679151378,0.9485422513,-0.8197868655,0.9923990056,-0.6225519521,0.7957708366,0.9912822188,-0.7204197856,0.6214835447,-0.6281119771,0.588526565,0.987396729,-0.6670590604,0.8673305708,0.5236675973,-0.0583517759,0.6147440028,-0.6009070807,0.4862887128,-0.8787049967,-0.4978766318,-0.3228482776,-0.5363106076,0.2400469287,0.0173444784,-0.5363325371,-0.476134173,0.7553140053,-0.293407664,0.9760944106,-0.4942669429,0.3752962588,-0.2121276553,0.4740134559,0.6838406483,-0.26872128,-0.5297412952,-0.7058453414,-0.8500378048,0.1828572722,0.9748357705,-0.6061310551,0.5919737719,-0.9071102356,0.0533977183,0.7825992112,-0.4568018008,0.1833767491,-0.8939971852,0.5592147329,-0.988020055,-0.6470497471,-0.2659655876,0.3734231307,-0.0274472341,0.0878897106,0.7659715631,0.0222277288,0.0721971782,-0.7810796554,-0.0002591339,0.5978986744,-0.2295509267,0.3748235307,0.6533986959,-0.7325968913,-0.1732352119,0.7173008245,-0.8605280749,0.2642727032,0.1175713959,0.4216973789,-0.842881888,-0.6029635021,-0.5478704012,-0.7047582307,-0.5853903043,-0.0455392053,0.599389065,0.9676660777,0.5182287847,-0.3956386222,0.9877618733,0.9717489677,-0.1086772085,-0.2721034256,-0.853625517
biasActivation=0,1,1
[BASIC:ACTIVATION]
"org.encog.engine.network.activation.ActivationLinear"
"org.encog.engine.network.activation.ActivationSigmoid"
"org.encog.engine.network.activation.ActivationSigmoid"
